<?xml version="1.0"?>
<opencv_storage>
<my_nn type_id="opencv-ml-ann-mlp">
  <layer_sizes type_id="opencv-matrix">
    <rows>1</rows>
    <cols>3</cols>
    <dt>i</dt>
    <data>
      34 20 7</data></layer_sizes>
  <activation_function>SIGMOID_SYM</activation_function>
  <f_param1>6.6666666666666663e-001</f_param1>
  <f_param2>1.7159000000000000e+000</f_param2>
  <min_val>-9.4999999999999996e-001</min_val>
  <max_val>9.4999999999999996e-001</max_val>
  <min_val1>-9.7999999999999998e-001</min_val1>
  <max_val1>9.7999999999999998e-001</max_val1>
  <training_params>
    <train_method>BACKPROP</train_method>
    <dw_scale>1.0000000000000001e-001</dw_scale>
    <moment_scale>1.0000000000000001e-001</moment_scale>
    <term_criteria><epsilon>9.9999997473787516e-005</epsilon>
      <iterations>10000</iterations></term_criteria></training_params>
  <input_scale>
    6.0523664030382229e-001 -1.8925623972669219e+000
    7.9508656482054046e-004 -4.3039868928481200e+000
    1.7313638604458381e+000 -4.8319519642007874e-001
    2.7425055687876831e+000 -3.7358535012195415e-001
    1.8388585726349154e+000 -5.0007377915916973e-001
    7.5100345410853109e+000 -1.3560368515708723e-001
    5.1534410644264508e+000 -1.6892363278837047e-001
    1.0698158704111055e+001 -9.4305340303282595e-002
    1.5441677479953478e-001 -4.9552945702562756e-001
    7.3139347542893474e-001 -3.4404784284638473e-001 1. 0.
    5.2163426795523371e+001 -1.9177570199137947e-002
    1.1431877411012691e+001 -5.9317651692740545e-002
    1.8959917430283282e+000 -7.5883393764304208e-001
    2.6725467306545769e+000 -4.4971564917282220e-001
    1.1359711994672543e+000 -6.2226364975120307e-001
    2.7693629986473760e+000 -4.2690132905010358e-001
    6.2351355900426810e+000 -1.6473373998976409e-001
    1.0074615468492118e+001 -1.0025707524982339e-001
    2.1271460023028856e+000 -2.0222647884127165e-001
    1.3608092729822285e-001 -7.1353201524658694e-001
    8.8761928134601675e-001 -4.3443142206469099e-001
    2.2286962778836519e+000 -2.4592176741280161e-001 1. 0.
    1.2429064907087715e+000 -5.5466108039091233e-001
    2.5562666789990702e+000 -4.7536594119202974e-001
    2.3506699062279091e+000 -5.5774912749019423e-001
    5.7311067874579606e+000 -1.8014909412869920e-001
    9.2548357244422412e+000 -1.0934348571921466e-001
    1.7482916688744457e-001 -6.1518667716382147e-001
    3.4861158828150168e-001 -3.8792036230460364e-001
    2.9348631822659348e+000 -9.3430274850922146e-002
    5.1580792490216147e+001 -1.9394353841125381e-002
    7.8068793230759095e+000 -1.3026577324874117e-001</input_scale>
  <output_scale>
    5.2631578947368418e-001 4.9999999999999994e-001
    5.2631578947368418e-001 4.9999999999999994e-001 1. 0.
    5.2631578947368418e-001 4.9999999999999994e-001 1. 0.
    5.2631578947368418e-001 4.9999999999999994e-001
    5.2631578947368418e-001 4.9999999999999994e-001</output_scale>
  <inv_output_scale>
    1.8999999999999999e+000 -9.4999999999999996e-001
    1.8999999999999999e+000 -9.4999999999999996e-001 1. 0.
    1.8999999999999999e+000 -9.4999999999999996e-001 1. 0.
    1.8999999999999999e+000 -9.4999999999999996e-001
    1.8999999999999999e+000 -9.4999999999999996e-001</inv_output_scale>
  <weights>
    <_>
      -4.1168784542466092e+001 9.7459378705986155e-001
      -4.3239665040878100e-001 -1.9855205672043397e+000
      -1.0347956314941447e+000 -1.3073937919348204e+000
      1.1167298406148765e+000 8.7376860426268432e-001
      5.6985951505683807e-001 -6.2806454639563825e-001
      1.1843144452554524e+000 1.9818777451495453e+000
      -5.7994179338144214e-001 -1.2262188660957336e+000
      1.6810069584574028e+000 8.0002306713958582e-001
      1.9835465815524229e+000 -1.4261610892374810e+000
      1.6451408797537672e+000 1.0205468927152936e+000
      -4.9631136215022771e+001 6.8111047069331487e-001
      -9.9035474507766300e-003 -1.4874034218934646e+000
      -6.6774347022162533e-002 -5.0897765220801949e-001
      4.9606147882868198e-002 9.9516271341295870e-001
      6.0637200996569929e-001 8.0314592922141409e-002
      4.8238755638868741e-001 1.4776665982222441e+000
      6.5928884122058801e-002 -5.0304724212678820e-001
      2.3210310896404504e-001 4.6106352691511296e-002
      1.4648661489727299e+000 -5.3543936894073618e-001
      2.2355848236583362e-001 -3.2647385565073034e-001
      -4.2755903841832713e-002 -1.7423749339045108e-001
      -3.4883974628353166e-002 -6.9442900147203757e-001
      3.5657033025440860e-001 3.0164625282283797e-001
      -3.0960874843796776e-001 -2.3587471271034932e-001
      -6.8164211631170396e-002 4.1594120687189839e-001
      3.3280524469924078e-001 6.8756682937159352e-001
      -1.4428592903687196e+000 4.7683327847680596e-001
      -4.6732837238302355e-001 1.2138408282675781e+000
      7.0309392001713700e-001 3.6655598337104073e-001
      -3.7490426043444242e-001 -3.1397867090170989e-001
      -3.6012024490218071e+000 1.0281792236837554e-001
      2.1992406119283506e-002 -9.2565511876809159e-001
      -2.1979123562743738e-001 2.1318634132582792e-001
      2.4654714599111918e-001 -7.0475442277028871e-002
      -2.8037132577571688e-002 -1.6369677943238903e-001
      5.5295696585679566e-001 9.1015967657033803e-001
      -5.9814627358231331e-001 4.0763922848148254e-001
      3.5357858521953883e-001 7.4940291221159450e-001
      9.1629519677009807e-001 -3.7322385616526504e-001
      2.8181603057896798e-001 2.5097323451463205e-001
      4.6156612069920131e+000 -4.9234641821660513e-001
      -1.8257055034337341e-001 -3.7011773886205157e-001
      7.5777387503562588e-001 1.1258433104831631e-001
      -7.1188230161843447e-001 -4.6121802885176300e-001
      -3.0154888119007484e-001 9.4799183004309040e-001
      -3.6564866696714653e-002 3.8789272932020685e-001
      -1.9030233234616143e+000 -8.3154572342727620e-002
      -7.7353841950269364e-001 1.2452312039867985e+000
      3.7826213929530511e-001 8.4920303743727554e-001
      -6.4379429497848328e-001 -8.3219032012059835e-001
      9.4739598833260814e+000 -3.2275628810277845e-001
      7.4791919828035944e-002 4.3925180901594413e-001
      3.6526447520650707e-002 6.9777002209014005e-002
      -1.0590663461676771e-001 -5.8777124126986491e-001
      -3.9368663729107711e-001 -1.2120252077560469e-001
      -4.6836686703151309e-001 -4.4061344573667105e-001
      -1.0104963283538536e-001 5.5295042750190516e-002
      1.4916205754296497e-001 7.1967817802343015e-002
      -4.4370354631133302e-001 8.5320535837438080e-002
      1.7848121292711550e-001 3.0282839903998198e-002
      -1.8755471647072210e+000 -6.3719624223126645e-002
      -7.8798651269385761e-002 -3.3685927816848588e-001
      -2.3493900544739509e-002 -2.5377594030738061e-002
      8.4662409361422511e-002 -8.3842405327006320e-002
      -1.5241446422569077e-001 -1.3755751880200921e-002
      1.0543823891303239e-002 3.3811827046001519e-001
      -3.4927733038232001e-001 -4.2447856899997416e-002
      3.7074141604029734e-002 4.2147057199275728e-001
      3.3771136361533105e-001 -1.1201375503282381e-001
      1.4208995291327908e-001 9.3080077555406301e-002
      -2.7680145827955588e-001 -1.7780520509901263e-001
      -2.3480701192616641e-002 -8.5509575969613602e-002
      1.7972006105225005e-001 -4.8702489281099937e-002
      -2.6925436233921735e-001 -8.6741448603045848e-002
      -3.0913087652465532e-002 8.0074480980032448e-002
      1.7525826905634024e-003 8.7639736985099581e-002
      -6.4001171825420544e-001 1.5885009796531022e-001
      -2.4369334179807192e-001 6.4600166417469351e-001
      9.3042650197652288e-002 4.5350884881674230e-001
      1.8649754640743574e-001 -3.1683908546059952e-001
      2.8981875515962172e+000 -4.7636473686839764e-001
      -2.1865667506048175e-001 -6.7604638770185632e-001
      3.5131252264312574e-001 3.2913020028950990e-001
      -1.7055810296464774e-001 -4.2926463815647059e-001
      -3.2195976765644418e-001 4.0348089805730281e-001
      1.8156497310712089e-002 6.8222848728141572e-001
      -1.3023320549159401e+000 3.0113109286786161e-001
      -2.1670509543542618e-001 1.0621790213299029e+000
      6.7793743915941074e-001 2.4905654726482812e-001
      -9.3608969056631339e-002 -3.3769070589372230e-001
      7.8411666918506215e+000 -3.1940392139653601e-001
      1.1488248870031681e-001 -2.6310324938418522e-001
      8.0458552149989121e-002 5.8483870543272010e-001
      -5.4476664702210957e-002 -4.8989594560662186e-001
      -5.8456488736388468e-001 8.0901379420125138e-002
      -1.5295420012742542e-001 2.5789069684594840e-001
      -5.9155256798143296e-001 2.5269272451890484e-001
      -5.5795307236737042e-002 6.3352368965354811e-001
      2.5526305035065294e-001 4.8528428758185485e-002
      5.3644801117235501e-003 3.7413744059938830e-002
      1.3207513383307572e-002 -2.4500464415453123e-002
      -4.6311258063060932e-002 -2.4047265368279853e-002
      -5.8744101281212373e-002 1.9869601534554578e-002
      -1.9507673502598001e-002 3.6722424979332029e-002
      -3.8996184337224578e-002 5.2063924422642315e-002
      -1.2768711957421366e-002 -2.4330006515825087e-003
      -3.4149916315053097e-002 3.5891788504041490e-002
      -1.6376705236136321e-002 -3.1650351437958260e-002
      4.6045982400405971e-002 1.5405433531883797e-002
      5.8829514097690903e-002 2.6173421597583745e-002
      2.5030282757278828e+000 -1.0810064090498646e+000
      1.5805923720521731e+000 5.6786863857400094e-001
      8.2894558864895418e-001 1.4427294344021393e+000
      -1.7439886259919171e-001 -8.1578195249224925e-002
      -2.1338477657045782e+000 5.0502378448599683e-001
      3.6850606329749780e-001 -1.4612912409343028e+000
      8.4805561515587671e-002 -4.1835679251432077e-002
      -5.7977310147645655e-001 1.0139700725958591e+000
      -1.5325672904224802e-001 -4.5146150336674562e-001
      -4.5103950268387794e-001 2.8493451463135411e-001
      -3.7127730005064674e-001 -1.8892055888785314e-001
      4.0175109539202628e-002 1.3583727520595271e-001
      6.2601614679921480e-002 2.4745009341121871e-001
      -8.9226601574099312e-002 -2.0948369592408259e-001
      -1.8099615810086997e-001 1.8065054118584677e-002
      -1.3630839768830966e-001 -1.3783027151858257e-001
      -2.4864763452314928e-001 -7.4001664952624086e-002
      1.1166838749659018e-001 2.6443009412962087e-001
      -1.3680916983310834e-001 -1.0413108092940943e-001
      8.2138808483139064e-002 6.6652822055490404e-002
      -5.6674815928054080e+001 -8.8956922236454605e-001
      2.3208042764093068e-002 -2.1551764542948146e+000
      9.4132322777515332e-001 -2.4814476356005306e+000
      -5.4609681294983337e-001 -9.2764869555157647e-001
      -1.1115042696570374e+000 9.2751607888489951e-001
      -1.1609220051781430e+000 2.1473196436396669e+000
      1.3632812782025554e+000 1.0837239994121437e+000
      2.8593194380736624e+000 -1.8063724466343636e+000
      2.1438733220075092e+000 -2.4987197644669505e+000
      2.4015953391388423e+000 -8.4287230530464718e-001
      -2.9988296476437228e+000 -1.6879795178011220e-001
      5.2669229220698811e-002 -6.0752521031249562e-001
      -1.5337205642237128e-002 -8.2232406315323137e-001
      3.9012501737669986e-002 -5.2361871581665709e-001
      -2.0268085925083287e-001 -6.8482943188579531e-002
      -7.9979351086371875e-001 6.0435149246130437e-001
      2.0654566076110887e+000 6.8510705650915760e-001
      2.5672417211805731e+000 -4.2358974544961259e-001
      6.1428276143578431e-001 -1.8894635622745657e+000
      1.5056100464073709e+000 1.4039882929677941e-001
      -7.1161391558146704e+001 -9.9101082653795158e-001
      7.7447608466808510e-002 -1.1109256189189840e+000
      5.9207939311047109e-001 -2.0458410595459959e+000
      -4.0242762985005370e-001 -9.5510943536554860e-001
      -1.0314899313664276e+000 8.1307200339412566e-001
      -7.9489974927876494e-001 1.1102387441697417e+000
      -3.8613668885771230e-001 1.1228089648547759e+000
      1.5971585868320108e+000 -1.2451431967942463e+000
      1.1096600163012389e+000 -2.0698830971069113e+000
      2.3839729693436507e+000 -3.7761608277536640e-001
      -1.3277085472178362e+001 -1.1956909644610679e-001
      -2.4013031744481514e-001 -3.3533665761889081e-001
      1.0014442610576251e-002 -8.1389662292558740e-001
      1.1329829820212227e-001 -4.5668193543734309e-001
      -6.0055598325695481e-001 -7.5631890251797021e-002
      -5.9134272512015351e-001 3.3965520520608972e-001
      1.1492555581567072e+000 2.9108259148466969e-001
      1.5264356636626610e+000 -5.1781227099164884e-001
      3.3349575028245088e-001 -1.6558952631860036e+000
      1.4802873689571090e+000 2.4003955122304882e-001
      -2.0574989372261743e+000 -2.7266036612048447e-002
      4.9853841625591214e-002 -5.5505476727414786e-002
      -3.8668128961444885e-002 -2.8488028126971499e-001
      3.4762509843476938e-002 1.1403918859619404e-001
      6.2846376165271467e-001 -3.3145370320199702e-001
      1.1507816681227574e-001 6.6201596833917437e-002
      2.2103499121980469e-001 -2.0217655707438367e-001
      5.6393105697362300e-001 1.0839582432969225e-001
      6.7633227481777969e-002 -4.8801260711392591e-001
      4.4532824940790650e-001 4.3040140521963671e-001
      -1.7691287244302698e+000 -5.9819066384516208e-002
      4.4422252883467661e-001 4.0181316817161650e-001
      -2.9359985870228283e-001 -3.8838839115576484e-001
      -5.9273262272387939e-002 1.5253916923215594e-002
      1.3734089716915925e+000 -1.0883619918697625e+000
      5.4902658099878254e-001 -3.5447643656468153e-001
      -2.5422586610899006e-001 -3.3181161379527357e-001
      4.4367100743797139e-001 5.8812280317199828e-001
      -3.4723506625888889e-001 -4.5756520659237959e-001
      5.2767514167704976e-001 1.1183710685930361e+000
      -3.9993814707612811e+000 -1.2433030629791954e-001
      -1.3462584599901994e-001 8.2202348895860325e-002
      -7.1858151848291626e-002 -1.1204626954963066e+000
      1.0434262848420653e-001 -1.5996079818141051e-002
      1.4854200724236492e-002 -3.3284923011240573e-003
      3.2455528184612120e-001 -8.1493901232528809e-002
      8.3565030866101730e-002 -2.4763194929206617e-001
      -3.3133087112623105e-001 -6.4749166037877104e-001
      -9.2136758576875075e-002 1.4535969879164953e-001
      -3.1066884415368390e-001 2.8860879378493021e-001
      -5.6079592195762238e+001 -8.3579374175916321e-001
      6.7734623892047999e-002 -1.6499067153339508e+000
      7.4589116488997576e-001 -1.9726441246672537e+000
      -3.8534421435918470e-001 -1.0741362776244670e+000
      -1.0225236496022951e+000 6.1391969636706334e-001
      -1.2222528094016294e+000 1.6542317785517107e+000
      1.7115805698715596e+000 1.0956139914014842e+000
      2.8699585420851919e+000 -1.3789882012167611e+000
      1.6449161129868886e+000 -2.6277903345698839e+000
      2.3411758210578748e+000 -5.0175243528603286e-001
      -1.0521608324118264e+002 -9.5732185394027747e-001
      3.0725290021381696e-001 -4.4727747162676396e-001
      8.7897898944454189e-001 -2.6414217025867426e-001
      -9.7020354830320832e-001 -3.4327809836381779e-001
      4.9153196666992655e-001 9.9554445516297485e-001
      -1.7109858695663768e-001 4.4457292600021364e-001
      -2.4265448638671328e+000 -8.5455848948320590e-002
      -2.0044983333111205e-001 -4.4314011214031374e-001
      4.5551279003208439e-001 1.1639846692663409e-001
      -1.7278993922358248e-002 -7.7482839074901111e-001
      3.2438227848414608e-001 -1.8323732548291113e-001
      3.7184797456149103e-002 1.4621363133892754e-001
      -6.9990412821394676e-002 4.0857779411011472e-002
      1.2498658342334508e-001 -1.5396879420599172e-001
      -1.2164025085919056e-001 -8.5219825311840136e-002
      -5.7539482085105023e-002 -1.4614938160481933e-001
      1.0549152933120890e-003 6.2754446659443783e-002
      4.0061734209422634e-001 -8.4033294424873492e-002
      -1.4719073873179198e-001 -2.3675139855672761e-001
      2.5061179489361513e-001 2.2576145623016161e-001
      2.9787782426797822e-002 5.1969906931186104e-002
      3.9353285914423698e-002 -2.5115749403338494e-002
      3.7963450876262565e-003 -4.5259445129716178e-002
      -2.4727508837272080e-002 4.1616345193794660e-002
      5.1901179018675032e-002 3.0305266770304460e-002
      5.3224822745949113e-002 -5.9596560674494059e-004
      5.1740443505050117e-002 -7.5463600972308547e-003
      -1.3929743577373650e-002 6.1599533381974103e-003
      9.3722602063475574e-003 3.6961529845447857e-002
      3.1097976763844605e-002 -1.7375542318938276e-002
      4.0176045802447234e+001 1.5167190729641260e+000
      -2.3727811394270162e-001 1.0571617095201085e+000
      -1.5377998992729853e+000 8.9584747632119821e-001
      1.7509125672029757e+000 1.9864530718156046e+000
      2.0371945109296719e+000 -1.6646555389969906e+000
      1.7542418037000171e+000 -1.0025636035796137e+000
      3.4418190867606269e-001 -1.9888906582403423e+000
      -6.5880499535350534e-001 1.1562051465203291e+000
      -1.0997668700465553e+000 4.5482730361597434e-001
      -8.8333140748377126e-001 1.8926510030535841e+000
      6.3945920551081326e+000 1.0774400861800000e+000
      2.7237144336357744e-001 3.4218676461798070e-001
      -1.0846093270302593e+000 1.1554297523557967e-001
      1.0643421130183250e+000 1.2117734419686479e+000
      1.3170735527330348e+000 -9.9399251212394857e-001
      1.6786462589047904e+000 -3.5897672834376393e-001
      -2.1143716507121557e-001 -1.8733326197551687e+000
      -5.3432773938845723e-001 7.3861140604907760e-001
      -3.4149964882119144e-001 5.4639458571630339e-001
      -4.7168656927970370e-001 1.2348342926145808e+000
      5.2606094538327675e+001 4.4018160708830756e+000
      -7.4665543286853417e-002 1.1617305558318016e+000
      -3.7156770417343070e+000 1.2348174076589387e+000
      3.5895258594912982e+000 2.2904807084139502e+000
      1.8924091720456109e+000 -3.1292449392723776e+000
      1.1392565107897512e+000 -1.1906034256815690e+000
      9.0200201822342885e-001 -1.1291095512782565e+000
      2.9986857509507751e-002 3.1672617995233407e+000
      -1.2391206944163744e+000 5.5373316988512396e-002
      -1.5869174277905462e-001 3.3682514073292769e+000
      1.7587503413088093e+001 4.6979230230529417e-001
      -9.9851516184638306e-002 6.6753651420414239e-001
      -9.0720058882251897e-001 -1.0964598827230612e-001
      8.8564653472881127e-001 6.5210102112491830e-001
      5.8699401785833760e-001 -8.4719771627536433e-001
      8.4041026592594187e-002 -6.9042724830036395e-001
      4.3733457602111830e-001 -3.8338579224288655e-001
      1.7707531688357939e-001 6.3222597195068475e-001
      -7.1072630638821876e-001 -7.1173981766230660e-002
      1.8774970472676783e-001 9.6380894946507467e-001
      7.8356947479460857e+000 -7.0242876832190257e-002
      -4.1026098202263439e-002 4.1983263226499529e-001
      -2.0915029096427815e-001 -5.9875719338891908e-001
      3.3192568564498509e-001 7.0908334841735796e-002
      5.4040289946325620e-002 -9.2935698438144615e-002
      1.4703218059870876e-001 -4.2388491718550197e-001
      -7.8940083327335805e-002 -3.7114604952639912e-001
      -2.1072120493505436e-001 1.0705701043994904e-001
      -5.1170220752425011e-001 2.1166508716874613e-001
      1.9795200259265160e-002 4.2256671237083132e-001
      2.2386731617867216e+001 1.8672639451453723e+000
      2.7939037837328606e-001 6.7535086401320032e-001
      -1.5563662519548875e+000 3.5886390671951285e-001
      1.6423895343988166e+000 2.1065717612425070e+000
      2.1971601356373065e+000 -1.2858483991670153e+000
      2.8154114688738354e+000 -6.3501461883546739e-001
      -2.6129733958045748e-001 -2.7614054930856780e+000
      -1.1379277433264505e+000 1.2426420731916727e+000
      -6.1399204049197920e-001 1.4253758721548215e+000
      -1.3657850098742350e+000 1.7958321465384961e+000
      2.6600130751169896e+001 8.9960477974777286e-001
      -2.1044734521648370e-001 8.9404970064628342e-001
      -1.1755434935276030e+000 9.4231536192610865e-001
      1.1577070709174164e+000 4.6864419012337871e-001
      2.9250280466856482e-001 -1.3069386431946419e+000
      5.9823958855312687e-001 -8.5595691284815234e-001
      4.4264668539648694e-001 -8.0355336246119735e-001
      -2.5038359645587321e-001 5.2409230854415234e-001
      -9.1333373926336259e-001 -2.9479814790563608e-001
      5.4561177063266253e-001 1.3337349769646920e+000
      -3.3193020461282341e+000 1.8801357199071961e-001
      3.9206166461915840e-002 1.8170494983193586e-001
      -3.4247574370230965e-001 -1.6511251184927375e-001
      2.9471716787489288e-001 2.1884466680501347e-001
      -5.1856593675271248e-002 -2.5836510374883248e-001
      5.4505596444402817e-002 -1.8843840608506141e-001
      -1.8526570005624213e-001 -1.0311151460958837e-001
      1.7853117493054146e-001 2.0282744117201063e-001
      -1.9601337622731332e-001 -1.3873329401543072e-001
      1.2566316818860088e-001 4.2190671541788799e-001
      1.8526023475427185e+000 9.5852289031887528e-001
      -2.5068653169184989e+000 -7.2993694551961974e-001
      -4.4269358529961328e-001 -6.9411910225224294e-001
      -6.9838414296354545e-001 3.0535331224251222e-001
      1.0417309805513519e+000 9.9668122317473162e-001
      -1.1727197247600740e+000 6.5855614839370502e-001
      -1.3519290339925496e+000 1.1385826182271014e-001
      6.1302092658986918e-001 -2.8274046578956291e-001
      -1.0152087526842961e+000 1.8130052258849667e+000
      2.2926341395959708e+000 1.1170068693020279e+000
      -1.7817518381225184e+000 -3.6316871154937209e-002
      -5.1757336776957243e-002 -2.0982265481942645e-002
      -1.7774948762286008e-001 -8.4828728480031507e-002
      1.9000379486688146e-001 1.2217595094355466e-002
      2.0010826964437078e-002 -1.8804993327565075e-001
      1.7879497035242400e-001 2.0965155082382187e-002
      -1.4917919948466657e-001 -8.0029184289322319e-002
      2.8891096516372122e-001 2.0780990191112708e-001
      1.7927398354810640e-002 -1.7724979161155133e-001
      3.0832326063970356e-001 1.0605638006279867e-001
      1.3849672832048807e+001 -1.0205578443447834e+000
      6.9272287809407320e+000 8.6275104697684946e-001
      1.1781271816678784e+000 6.2914705039828467e-001
      -7.5554382085085148e-001 -2.1824177621173830e+000
      -1.7598866231710024e+000 1.1935247361409536e+000
      -1.7424510894894472e+000 -8.4095068512080962e-001
      3.0752207362937103e+000 2.0127392619547853e+000
      -2.9167477059765157e-001 4.7974538704719705e-001
      -9.5106993884349678e-001 4.9589566458705692e-001
      -9.9273244797503235e-001 -6.4409024205486731e-001</_>
    <_>
      -2.1169060035584268e-002 -3.9190194067292405e-004
      -1.0781922034585512e-005 -1.0685216227227238e-002
      -2.2521846679560392e-004 3.4586504013352386e-002
      3.5473201057562519e-004 -2.7587792418867152e-001
      -4.4923414104292313e-002 1.3566047405272495e-003
      3.4441732386371582e-001 3.4076939711661543e-003
      -2.0029354141781669e-002 -8.0322054035085189e-003
      5.6148636213423975e-001 -3.7316206543862396e-001
      -2.1846722013706163e-003 -2.2011958158448292e-001
      3.5047447306231327e-002 -1.9563888294641443e-001
      -1.2033051495148102e-001 1.7940007576415606e-001
      -5.4775155739970616e-001 2.1211244715460830e-002
      1.3365330871739156e-001 8.6560999240740621e-002
      1.2847612381106252e-001 -1.4517001402617224e-001
      2.6107712283096207e-001 -2.1836336189469563e-001
      4.3314284207052432e-003 3.9868606694502241e-002
      1.8551304747346477e-002 -1.1189287148009973e-001
      -3.8356098437053780e-002 1.7566315077192307e-002
      -8.8250688757417667e-005 3.1885738060028238e-005
      5.4789401664831284e-003 1.6673167702786762e-004
      -2.3739729453951437e-002 6.8764659312275012e-004
      3.2116534742850739e-001 -1.9366886569512548e-001
      3.0560558653475946e-003 2.2469155203378123e-003
      1.5898096007981970e-002 -1.7847660188066009e-001
      -3.2291876470914971e-002 -4.1642984007957034e-003
      5.0521280549271373e-002 -8.0859136511451251e-005
      -2.6149446870500376e-001 -8.9445557288423327e-004
      2.2377987483715606e-001 5.5348570305693593e-003
      2.7025912832221677e-001 4.3355231806040568e-004
      -5.4972316164023170e-004 -5.5813371353417452e-003
      -1.5232702774205674e-003 -2.6045228296231565e-001
      3.5722668029493400e-003 3.0199609970721730e-001
      5.0070561477000328e-002 -8.2021765737597780e-004
      -3.3033682459990679e-002 -1.7469847964981140e-003
      -3.0876940313523360e-001 2.8620763855176220e-003
      7.6779593181135544e-002 -1.3194322875978617e-003
      8.6233145344723791e-005 -6.3861404626846266e-002
      1.4516050614290501e-003 -8.7892595942864436e-003
      -3.4742356300480485e-003 -1.2980532212169951e-001
      -1.4574722120370806e-001 2.2766494960507994e-002
      -2.7710837231135464e-002 1.3680982946974643e-001
      -9.1645626871273853e-002 -2.9437251997234826e-001
      7.4775258473283771e-002 -1.5651577364358289e-003
      -1.9651630280026263e-004 3.5998676158444695e-002
      -1.3666378204748436e-004 -1.1138447623176263e-001
      -3.5825882318855890e-004 -7.6247798511488163e-002
      2.6170794039810007e-002 -1.4682252880639235e-004
      3.4531353293902944e-002 1.1825432664945232e-004
      8.8085529133332154e-003 -1.1440740382991062e-004
      2.1693747755804869e-002 2.1983433927631458e-002
      -1.1017720679464311e-004 -3.9818018440634276e-002
      7.6006184849932378e-004 -5.0010537639039532e-003
      -3.6895983285175930e-003 5.8729376641306959e-002
      -2.1083490434338830e-003 -1.6289719715186125e-004
      3.5092667235347437e-002 -2.3755454046619974e-004
      -9.4431158168382545e-002 -7.2887182171817091e-004
      2.8756718442647761e-001 -4.0587208279940906e-001
      -1.6311620269681912e-003 1.6459755650146335e-001
      -5.0436620529891479e-002 2.4029434888847531e-001
      1.4904485844875509e-001 7.4822334258115384e-003
      3.1757178227678678e-002 1.8438026595888092e-005
      -1.0779177594427411e-002 1.6620643499364450e-003
      -3.6220288407425791e-002 -7.4039272647182450e-003
      -7.5176963133401437e-003 1.3549012891248253e-002
      -3.0003376167200654e-005 9.6370586735461015e-004
      8.2833587210590109e-004 -8.5408708880115088e-003
      -2.9555605079451515e-003 2.1610121321623481e-002
      4.4917210369627758e-002 -1.2716767451817455e-004
      -1.5760285931492746e-002 1.1443218225295188e-004
      -4.4285944375139989e-002 -9.8142116791002476e-004
      7.9971767635301960e-001 -1.2377333213027437e+000
      3.8345243015183712e-003 -1.5518750354662378e+000
      -5.8224721479011837e-002 -1.3656174047417338e+000
      -1.6670630721943389e+000</_></weights></my_nn>
</opencv_storage>
