<?xml version="1.0"?>
<opencv_storage>
<my_nn type_id="opencv-ml-ann-mlp">
  <layer_sizes type_id="opencv-matrix">
    <rows>1</rows>
    <cols>3</cols>
    <dt>i</dt>
    <data>
      25 12 11</data></layer_sizes>
  <activation_function>SIGMOID_SYM</activation_function>
  <f_param1>6.6666666666666663e-001</f_param1>
  <f_param2>1.7159000000000000e+000</f_param2>
  <min_val>-9.4999999999999996e-001</min_val>
  <max_val>9.4999999999999996e-001</max_val>
  <min_val1>-9.7999999999999998e-001</min_val1>
  <max_val1>9.7999999999999998e-001</max_val1>
  <training_params>
    <train_method>BACKPROP</train_method>
    <dw_scale>1.0000000000000001e-001</dw_scale>
    <moment_scale>1.0000000000000001e-001</moment_scale>
    <term_criteria><epsilon>9.9999997473787516e-005</epsilon>
      <iterations>10000</iterations></term_criteria></training_params>
  <input_scale>
    3.1874182534162959e-001 -1.6446724969373714e+000
    1.1534668273526101e+002 -8.6701684704417314e-003
    1.7706211385079076e+001 -5.6658659601979716e-002
    7.6743329653710345e-004 -4.1187952521986064e+000
    2.0244540331690790e+000 -8.5537188245231699e-001
    2.4716789254973176e-001 -5.4342326963893428e-001
    1.2986964661977596e+000 -4.3646420478548092e-001
    1.0483211617334229e+000 -3.5041598509132393e-001
    1.7295926838299209e+000 -4.2926407702772523e-001
    6.4709100102640571e-001 -3.2694678096895063e-001
    1.5143172176480721e-001 -8.6785221032969484e-001
    1.5154396169515807e-001 -4.2090319529566522e-001
    1.5096141920136100e-001 -5.5010537625497513e-001
    1.1138839008576271e+000 -7.8306898219901844e-001
    2.0551811954592871e+000 -7.4719818007517202e-001
    2.4399019778607149e+000 -3.4746077969212796e-001
    1.9388348928703945e+000 -3.9529522169650244e-001
    2.9839588173579292e+000 -3.7629916512989275e-001
    2.0013948767032752e+000 -5.6613812575294353e-001
    4.2064000863080020e+000 -2.5294319030275658e-001
    5.5156232994268786e+000 -1.8769003872006806e-001
    1.9721784610448054e+000 -2.3989434201541391e+000
    1.3836511171265501e+001 -7.2654052667312716e-002
    1.3911990708949458e+000 -1.9856559376266408e-001
    5.5220843154373176e+000 -1.0074437329590777e-001</input_scale>
  <output_scale>
    5.2631578947368418e-001 4.9999999999999994e-001
    5.2631578947368418e-001 4.9999999999999994e-001
    5.2631578947368418e-001 4.9999999999999994e-001
    5.2631578947368418e-001 4.9999999999999994e-001 1. 0.
    5.2631578947368418e-001 4.9999999999999994e-001
    5.2631578947368418e-001 4.9999999999999994e-001
    5.2631578947368418e-001 4.9999999999999994e-001 1. 0.
    5.2631578947368418e-001 4.9999999999999994e-001
    5.2631578947368418e-001 4.9999999999999994e-001</output_scale>
  <inv_output_scale>
    1.8999999999999999e+000 -9.4999999999999996e-001
    1.8999999999999999e+000 -9.4999999999999996e-001
    1.8999999999999999e+000 -9.4999999999999996e-001
    1.8999999999999999e+000 -9.4999999999999996e-001 1. 0.
    1.8999999999999999e+000 -9.4999999999999996e-001
    1.8999999999999999e+000 -9.4999999999999996e-001
    1.8999999999999999e+000 -9.4999999999999996e-001 1. 0.
    1.8999999999999999e+000 -9.4999999999999996e-001
    1.8999999999999999e+000 -9.4999999999999996e-001</inv_output_scale>
  <weights>
    <_>
      -4.5855416736623198e+001 7.9829120918036278e-001
      2.2161547003119175e-001 1.1062046398061381e-003
      2.8580791835940516e+000 3.6177058234039436e+000
      -2.3847081899350435e+000 -1.3131581469442013e+001
      -3.4005256256785583e+000 1.2013291645801534e+001
      2.3237236070455527e+000 -1.9242214912279452e+000
      1.9479704329914966e+002 -1.0265929980933566e+000
      -2.7027380573754031e-002 -1.0635894015857535e-001
      -9.5589901878608330e-002 -8.2745753647176346e-001
      -4.5761183763420682e-001 1.0204326798545346e-001
      1.6470382360942395e-001 -1.1886224590664571e+000
      2.7379938643964163e-001 4.1257761935262240e-002
      6.9948941321799802e+000 -7.2036959009648327e-001
      1.9566628333026728e+000 -7.3225029038615086e-001
      -6.5621319453707960e-001 1.0697659865897877e+000
      1.3630610375061527e+000 2.5200855438783148e-001
      5.1537355864901913e-001 1.2461714244036122e+000
      -1.3212205162883437e+000 1.0604366716140767e-001
      -4.8477475069835698e+001 1.7097497567410469e-002
      3.3803184817980159e-001 7.1927434569322796e-002
      -1.7163567896283451e-002 3.9487909603989534e-002
      -4.1005930454758299e-001 6.8398513096311425e-002
      -2.6329180853641724e-002 4.9682479820278369e-003
      3.9332375547204185e-001 6.4548909283091233e-002
      -4.5311822799139726e+001 5.5459271490969975e-001
      6.0463623046657322e-001 -9.5380038522039343e-002
      2.1496010183004413e-001 -9.4803333603095868e-002
      -1.2281142617643586e+000 -5.5368145125236534e-001
      7.6271929720665529e-002 5.2358209993090965e-001
      1.2037334032921756e+000 7.1772792177974859e-002
      -2.7640578523243079e+001 -8.1662172138958100e-002
      -2.4718142554838295e-002 -6.3912334102330182e-003
      -4.0397369064112876e-001 -4.1829490545421244e-001
      -9.7192958768766724e-001 1.1281469287313098e-001
      3.6134742402811970e-001 -3.0337481816077577e-001
      9.6470983501390228e-001 1.6236150375413369e-001
      2.0315121140493527e+001 6.6963503300639660e-001
      -3.6821839621375019e-001 -3.4680808597967169e-002
      1.4597573167001994e+000 -2.8266476849587308e-001
      9.1327241467685649e-001 6.9975106482727618e+000
      -3.1386001620206057e-002 -6.9001044506400948e+000
      -9.9485941677739209e-001 4.3616201615278055e-001
      2.7442029433326017e+001 -9.3222496402892804e-002
      6.3034259374612711e-001 -1.7794948625136869e-001
      8.3355802954831226e-001 -2.1832000575876231e-001
      5.9158663545458778e-001 4.2973122217057345e+000
      -3.2678558354493675e-001 -4.0553801049507658e+000
      -5.9429340472369785e-001 4.3344055272662690e-001
      -1.5656307162823877e+001 7.6597789736228061e-001
      -3.9533231173327792e-002 1.2441417473766626e-001
      1.0406954735776395e+000 9.7726650853574248e-001
      5.8972565927629728e-001 6.4382460617914239e-001
      -9.6259647370682810e-001 -8.1277779361302016e-001
      -5.4144540674438180e-001 -2.1323983418601830e-001
      -9.8659863680585946e+000 2.7066012082257405e-004
      -2.3542794049148965e-002 -2.8688160300918836e-002
      4.8596687777331747e-002 -1.8886837424629266e-001
      -2.3189121722084960e-001 1.7938891941882840e-001
      1.8672843027032815e-001 -1.8548157593764328e-001
      2.0349311987922875e-001 1.0958841767938990e-001
      -5.8589058349447861e+001 1.2024002617170388e+000
      4.0543743193631815e-001 3.6768228875000641e-001
      1.2525754073617943e+000 3.6410879470819985e-001
      -5.9368415427115229e-001 -7.5356853166028037e-001
      -5.1861995175663556e-001 -6.6699786476173517e-001
      5.7717915547322818e-001 -1.6022147446191229e-001
      -1.4060665104192960e+001 3.8175510873575191e-001
      4.3062089858691582e-001 1.4739118377630242e-001
      1.3031339082110924e+000 9.0377063006933656e-001
      -5.5467682156120517e-002 -2.5447765606410749e-001
      -9.9498866764266258e-001 -8.7413168721161658e-002
      1.0935911457652446e-001 -2.1250703117031222e-001
      6.7343979717491349e+000 3.2317196608238963e-001
      -3.4892653348561273e+000 2.8291995846995061e-001
      2.6043711290808602e+000 9.5189895768154328e-002
      1.1873646078624247e+000 1.8726673452382792e+000
      2.8469451901283271e-001 -3.8254298289054809e+000
      -1.0704341649884670e+000 -3.2864184151993153e-001
      -5.1449404884952166e+001 4.3414599198289539e-001
      3.8925071849705922e-001 -1.7452276216323552e-002
      6.6988861451339599e-001 1.8324854584654923e-002
      -7.4297594948793078e-001 -2.7778576914005570e-001
      1.2660231628748694e-001 -5.6709044879010673e-001
      7.4790792437716402e-001 -7.2768361264430970e-001
      -4.3094353499037922e+001 5.0889642274724776e-002
      3.0553785310223288e-002 1.9269169844465622e-001
      -5.0538941762435530e-001 -4.3589359026357982e-001
      -1.2301809144670373e+000 6.6088001730494644e-002
      4.2835486760356956e-001 -4.7955508805239905e-001
      1.2276057898193602e+000 9.4927751750159522e-002
      -1.0637405599822786e+001 2.7860689185152294e-002
      2.4893162827001655e-001 2.1430462787741966e-002
      6.2053533958223484e-001 5.4805372178868750e-001
      -5.8762797387629540e-001 -5.2867828635980652e-001
      -5.5463601358201664e-001 4.0261737502434491e-001
      5.3397731085876776e-001 -1.3436800357001732e-001
      -1.1686368239711001e+001 1.1899939700482610e-001
      4.5925762112578639e-001 7.7479304895321260e-002
      1.1726170079727991e+000 1.1717493481458738e+000
      -5.6167713614645209e-001 -1.3802239645933660e+000
      -1.2706181918068900e+000 -5.2743694531879159e-001
      5.4588507781692319e-001 -2.5275982187447044e-001
      -2.4960325555747286e+001 9.1290540488140715e-001
      -2.5352371555089265e-002 4.1824463537991702e-001
      9.3878764836676520e-001 3.7902780735431922e+000
      1.4772388700987167e+000 4.7180049393380843e+000
      -3.9103657649021599e+000 -4.9149874670730060e+000
      -1.4530595065801777e+000 -5.0101718616225699e-001
      3.7037686381092165e+001 -1.8740736152777360e-001
      2.8044041451213659e+000 -4.4003477235468269e-001
      3.4344758641215106e-001 2.1587628173989237e-001
      -1.1125974345629844e-001 -8.0645705456129069e-001
      -1.7778295101525274e-002 6.5100969491056138e-001
      1.3027015296844852e-001 -1.0587517903919698e-001
      -4.7099896662074791e+001 -2.1296605046692504e-001
      -2.2669876133755934e-001 -9.9092511623684584e-002
      3.7407387539767700e-001 -1.9318700895285459e-001
      8.4059770574392945e-001 3.3299749624716005e-002
      1.4374270226877064e-001 1.5561418906182983e-001
      -8.2929232133515451e-001 4.5226535185563785e-002
      -7.7270996137500614e+000 7.4824580214389558e-001
      2.6078043432732314e+000 3.6463418262025432e-001
      -1.1409642679148566e+000 -9.3851363841078048e-002
      1.3926578392040090e+000 2.9746482159036503e-001
      -1.0447869724495533e-002 -4.5346203802295393e-001
      2.3146067931011864e+000 6.3567423518079225e-001
      -2.5294536466469381e+001 -2.6487951453877590e-001
      8.3755526331477181e+000 -2.5755722144678356e-001
      5.5721005905438081e-001 3.1025535642579887e+000
      -3.1211966243675300e+000 1.1989928527521219e+000
      -3.2411940242264103e+000 2.2885240617790678e-001
      3.0507516578427287e+000 -5.7498858078778525e+000
      -5.4793251307960462e+000 -8.2816083806853652e-002
      -6.6637577301895123e-001 -1.0353230138159606e+000
      -1.1247774635328189e+000 1.7897450834185002e-001
      -6.0349069637587083e-001 1.2099082945116693e+000
      -1.2138760930113256e-001 -1.2803348411270423e+000
      5.6898465205418480e-001 6.4495996069899239e-002
      -5.7839227972086222e+000 6.2248634035279284e+000
      -1.3674728418600495e+000 1.7135667855885767e-001
      7.2463444806004507e-001 2.5925318155729976e-001
      -8.8588169818720874e-003 2.8704660191265813e-001
      1.6855706208324890e+000 -9.5819837314009815e-001
      4.2691084665870431e-003 -1.6191706721594967e+000
      -1.2940871978162974e+001 1.4300856886145730e+000
      -6.5834819317467852e-001 -9.6475542468907072e-001
      -1.5663448290042770e-001 1.4136085807914445e+000
      -5.7601989508278884e-001 3.3401050177487299e+000
      1.1278455466946682e+000 -3.3313300211311336e+000
      7.3662519105384183e-001 -1.8551770497482816e+000
      3.3192398070360269e+001 -9.2239190754802323e+000
      -4.9013686661972908e+000 -6.4848234412100503e+000
      2.1390951896040611e+000 1.5338528320842018e+000
      9.7284759261884379e-001 -3.2429605948991256e+000
      -8.0075589157963034e-001 4.4276685025093974e+000
      -2.0230255539387729e-001 2.2610167893058084e+000</_>
    <_>
      -5.4391441410899808e-003 -2.2097414913556588e-004
      -8.7627773446969405e-003 6.7963124258885680e-003
      1.4254196537354964e-004 -1.1596452179299470e-003
      2.5131025461473178e-004 1.0741940306454537e-003
      2.3448204937776608e-005 2.5112857852446473e-003
      1.2405264364465215e-003 -1.3218973490663404e+000
      3.8655928832029545e-004 2.6443812649624400e-002
      -1.2362657241712020e-003 -2.0110137016213887e-004
      -1.4944728199136872e-003 -8.9967084944149814e-004
      7.4878662997894096e-003 -3.3081244728414350e-005
      2.8739638815777058e-002 1.2560946452231059e+000
      -4.3474176717192253e-001 1.4929293688656551e-004
      -2.5041289118809196e-001 8.1997969528553333e-004
      -1.7323880875751729e-004 1.0035876792693526e-002
      -3.9033882969448937e-006 1.6280932246712902e-002
      -2.8497849706966370e-005 5.8576860898115091e-001
      7.3406981379989619e-002 5.7877787720102380e-001
      -2.9627430390695174e-002 3.7393829963547004e-001
      1.4299126265685655e-001 1.6880559193233849e-002
      -1.1274506274044592e-001 3.0290397406567662e-002
      4.1568355200392487e-001 2.7768578645231898e-003
      -1.3273837656587562e-001 -4.6726961611813617e-001
      -1.2254645276827063e-002 7.0873024845258254e-006
      9.0915994343878405e-003 7.6864898497678857e-003
      4.5852961740196109e-005 -1.6651270613081066e-003
      9.9790558603340320e-006 -1.5466808732293041e-003
      7.5428280246389077e-006 -6.7434567986750567e-003
      -1.6072122049553940e-003 9.1084328505913015e-001
      -1.4027703207021851e-004 -2.6678265453562444e-001
      -4.4698526087514120e-003 7.3997898511155577e-006
      1.2232788974576350e-002 7.8936740544042257e-004
      -1.7803220685816737e-003 1.2172627471488820e-006
      -5.5402478565701818e-001 -8.3649964687046496e-002
      -6.8451923727247044e-001 1.3256180856553688e-003
      2.2166281951047956e-001 -4.2527970371873487e-003
      -6.9885398576726831e-004 -3.1910214021512720e-003
      -1.4914996679651668e-003 1.0605103286435889e+000
      -1.1496171783852187e-004 -5.6205887380385511e-001
      -6.9689587459241198e-002 -1.5828156865213376e+000
      -3.2856811265936963e-004 1.6307728774251691e+000
      8.1395750416581748e-003 1.9871533000134022e-004
      -3.0131394855394397e-002 -2.7730718611379524e-004
      7.7773746268230831e-003 3.2688738799136488e-005
      -1.8000796947424662e-002 -1.1636697573837596e-003
      9.0073496878761261e-001 -2.4823799828519941e-004
      -2.7452313363714498e-001 4.0295893443315469e-003
      1.4504269297108157e-004 1.1006349489304165e-002
      9.3455147690608086e-004 -2.7156175027477367e-003
      2.3859570069176377e-005 -5.4623441725436450e-001
      -8.6259371186854755e-002 -1.5614317400727764e+000
      -2.3894845148857312e-004 1.6246482620072233e+000
      5.4708462214377775e-003 1.0209975956634894e-004
      -2.9161818172174385e-002 -3.5359284258247917e-004
      -4.5897586878533006e-003 1.6795442655005421e-005
      -2.3654401205951768e-002 3.3515825210064494e-003
      -7.2180389514982479e-001 1.3166300705897951e-003
      2.3813203513727163e-001 2.5141847357991712e-003
      -7.3369384370909456e-004 -4.6312490065594757e-003
      -1.4931279151139921e-003 1.0700086136597389e+000
      -1.2069288549295164e-004 -5.6713409214858945e-001
      -6.8343066738410702e-002 6.7312187875542606e-001
      3.7102409420272019e-004 -2.5340110583229708e-001
      2.9593205899016207e-003 -2.2509714938667935e-004
      9.7925554528258754e-003 -2.3797657909892754e-004
      1.2351925556933136e-002 -3.7028562895174244e-005
      -5.3338263353541548e-001 8.0659182467566176e-002
      -1.2527528184907439e+000 -1.9196551863532838e+000
      -1.2355346223062607e+000 -1.6388751513512225e+000
      2.7822392555316825e-002 -2.0596548553376519e+000
      -1.8218416740435364e+000 -1.1605874579547377e+000
      4.5767932627619207e-003 -1.7451555955365144e-001
      -5.0450389372411319e-001</_></weights></my_nn>
</opencv_storage>
